digraph Tree {
node [shape=box, style="filled, rounded", color="black", fontname=helvetica] ;
edge [fontname=helvetica] ;
0 [label="Sex <= 0.5\ngini = 0.473\nsamples = 891\nvalue = [549, 342]\nclass = Dead", fillcolor="#e5813960"] ;
1 [label="Pclass <= 2.5\ngini = 0.383\nsamples = 314\nvalue = [81, 233]\nclass = Survived", fillcolor="#399de5a6"] ;
0 -> 1 [labeldistance=2.5, labelangle=45, headlabel="True"] ;
3 [label="gini = 0.1\nsamples = 170\nvalue = [9, 161]\nclass = Survived", fillcolor="#399de5f1"] ;
1 -> 3 ;
4 [label="Embarked_S <= 0.5\ngini = 0.5\nsamples = 144\nvalue = [72, 72]\nclass = Dead", fillcolor="#e5813900"] ;
1 -> 4 ;
9 [label="Age <= 29.75\ngini = 0.423\nsamples = 56\nvalue = [17, 39]\nclass = Survived", fillcolor="#399de590"] ;
4 -> 9 ;
11 [label="gini = 0.375\nsamples = 52\nvalue = [13, 39]\nclass = Survived", fillcolor="#399de5aa"] ;
9 -> 11 ;
12 [label="gini = 0.0\nsamples = 4\nvalue = [4, 0]\nclass = Dead", fillcolor="#e58139ff"] ;
9 -> 12 ;
10 [label="Age <= 38.5\ngini = 0.469\nsamples = 88\nvalue = [55, 33]\nclass = Dead", fillcolor="#e5813966"] ;
4 -> 10 ;
17 [label="gini = 0.484\nsamples = 78\nvalue = [46, 32]\nclass = Dead", fillcolor="#e581394e"] ;
10 -> 17 ;
18 [label="gini = 0.18\nsamples = 10\nvalue = [9, 1]\nclass = Dead", fillcolor="#e58139e3"] ;
10 -> 18 ;
2 [label="Age <= 6.5\ngini = 0.306\nsamples = 577\nvalue = [468, 109]\nclass = Dead", fillcolor="#e58139c4"] ;
0 -> 2 [labeldistance=2.5, labelangle=-45, headlabel="False"] ;
5 [label="Pclass <= 2.5\ngini = 0.444\nsamples = 24\nvalue = [8, 16]\nclass = Survived", fillcolor="#399de57f"] ;
2 -> 5 ;
13 [label="gini = 0.0\nsamples = 10\nvalue = [0, 10]\nclass = Survived", fillcolor="#399de5ff"] ;
5 -> 13 ;
14 [label="gini = 0.49\nsamples = 14\nvalue = [8, 6]\nclass = Dead", fillcolor="#e5813940"] ;
5 -> 14 ;
6 [label="Pclass <= 1.5\ngini = 0.28\nsamples = 553\nvalue = [460, 93]\nclass = Dead", fillcolor="#e58139cb"] ;
2 -> 6 ;
7 [label="Age <= 53.0\ngini = 0.46\nsamples = 120\nvalue = [77, 43]\nclass = Dead", fillcolor="#e5813971"] ;
6 -> 7 ;
15 [label="gini = 0.483\nsamples = 98\nvalue = [58, 40]\nclass = Dead", fillcolor="#e581394f"] ;
7 -> 15 ;
16 [label="gini = 0.236\nsamples = 22\nvalue = [19, 3]\nclass = Dead", fillcolor="#e58139d7"] ;
7 -> 16 ;
8 [label="gini = 0.204\nsamples = 433\nvalue = [383, 50]\nclass = Dead", fillcolor="#e58139de"] ;
6 -> 8 ;
}